{"feature_names": ["Fare", "Pclass", "Gender", "Age", "SibSp"], "class_labels": ["No sobrevive", "Sobrevive"], "nodes": {"children_left": [1, 2, 3, 4, -1, 6, -1, 8, -1, -1, -1, 12, 13, 14, -1, 16, 17, 18, 19, 20, 21, 22, 23, -1, -1, 26, -1, 28, 29, 30, 31, 32, -1, 34, 35, -1, -1, -1, -1, -1, -1, 42, -1, -1, -1, -1, 47, 48, 49, -1, 51, -1, 53, -1, 55, -1, 57, -1, -1, -1, 61, 62, 63, -1, 65, -1, 67, 68, -1, -1, -1, -1, 73, 74, 75, -1, 77, 78, 79, 80, -1, -1, 83, -1, 85, -1, -1, -1, -1, -1, -1, -1, -1, -1, -1, 96, 97, -1, 99, 100, 101, 102, 103, 104, -1, 106, -1, -1, 109, -1, 111, -1, 113, 114, 115, 116, 117, 118, 119, -1, -1, 122, -1, -1, -1, 126, -1, -1, -1, -1, -1, 132, -1, 134, -1, 136, 137, -1, -1, -1, 141, 142, -1, 144, 145, -1, -1, -1, 149, 150, -1, 152, -1, -1, -1, 156, 157, -1, 159, 160, -1, 162, 163, -1, -1, -1, -1, 168, 169, -1, 171, 172, -1, -1, -1, 176, 177, 178, -1, 180, 181, 182, -1, -1, -1, -1, -1, 188, 189, 190, 191, -1, 193, -1, 195, 196, -1, -1, -1, -1, -1, 202, 203, 204, 205, -1, -1, -1, -1, -1, 211, -1, 213, 214, 215, 216, -1, -1, -1, 220, 221, -1, -1, -1, -1, 226, 227, 228, -1, 230, 231, 232, -1, 234, -1, 236, -1, 238, -1, -1, -1, -1, -1, -1, 245, 246, 247, 248, -1, 250, 251, -1, 253, 254, 255, -1, 257, 258, 259, 260, -1, -1, -1, -1, 265, 266, 267, -1, -1, -1, -1, -1, 273, -1, 275, -1, -1, -1, -1, 280, 281, 282, -1, -1, -1, 286, 287, -1, -1, 290, -1, -1, 293, 294, 295, 296, 297, -1, -1, -1, -1, 302, 303, 304, 305, 306, 307, 308, 309, -1, -1, -1, 313, -1, 315, -1, 317, -1, 319, 320, 321, 322, -1, 324, -1, 326, -1, -1, -1, -1, -1, 332, -1, -1, 335, -1, 337, 338, -1, 340, -1, 342, 343, 344, -1, -1, -1, 348, 349, -1, 351, -1, 353, -1, 355, -1, 357, 358, -1, -1, -1, -1, -1, 364, -1, 366, -1, 368, -1, 370, -1, 372, 373, -1, 375, 376, -1, -1, 379, -1, -1, 382, 383, -1, 385, -1, -1, 388, -1, 390, -1, -1, -1, -1, 395, -1, 397, -1, -1], "children_right": [244, 11, 10, 5, -1, 7, -1, 9, -1, -1, -1, 95, 94, 15, -1, 93, 92, 91, 46, 45, 44, 25, 24, -1, -1, 27, -1, 41, 40, 39, 38, 33, -1, 37, 36, -1, -1, -1, -1, -1, -1, 43, -1, -1, -1, -1, 60, 59, 50, -1, 52, -1, 54, -1, 56, -1, 58, -1, -1, -1, 72, 71, 64, -1, 66, -1, 70, 69, -1, -1, -1, -1, 90, 89, 76, -1, 88, 87, 82, 81, -1, -1, 84, -1, 86, -1, -1, -1, -1, -1, -1, -1, -1, -1, -1, 225, 98, -1, 210, 155, 140, 131, 108, 105, -1, 107, -1, -1, 110, -1, 112, -1, 130, 129, 128, 125, 124, 121, 120, -1, -1, 123, -1, -1, -1, 127, -1, -1, -1, -1, -1, 133, -1, 135, -1, 139, 138, -1, -1, -1, 148, 143, -1, 147, 146, -1, -1, -1, 154, 151, -1, 153, -1, -1, -1, 167, 158, -1, 166, 161, -1, 165, 164, -1, -1, -1, -1, 175, 170, -1, 174, 173, -1, -1, -1, 187, 186, 179, -1, 185, 184, 183, -1, -1, -1, -1, -1, 201, 200, 199, 192, -1, 194, -1, 198, 197, -1, -1, -1, -1, -1, 209, 208, 207, 206, -1, -1, -1, -1, -1, 212, -1, 224, 219, 218, 217, -1, -1, -1, 223, 222, -1, -1, -1, -1, 243, 242, 229, -1, 241, 240, 233, -1, 235, -1, 237, -1, 239, -1, -1, -1, -1, -1, -1, 292, 279, 278, 249, -1, 277, 252, -1, 272, 271, 256, -1, 264, 263, 262, 261, -1, -1, -1, -1, 270, 269, 268, -1, -1, -1, -1, -1, 274, -1, 276, -1, -1, -1, -1, 285, 284, 283, -1, -1, -1, 289, 288, -1, -1, 291, -1, -1, 394, 301, 300, 299, 298, -1, -1, -1, -1, 393, 392, 363, 334, 331, 312, 311, 310, -1, -1, -1, 314, -1, 316, -1, 318, -1, 330, 329, 328, 323, -1, 325, -1, 327, -1, -1, -1, -1, -1, 333, -1, -1, 336, -1, 362, 339, -1, 341, -1, 347, 346, 345, -1, -1, -1, 361, 350, -1, 352, -1, 354, -1, 356, -1, 360, 359, -1, -1, -1, -1, -1, 365, -1, 367, -1, 369, -1, 371, -1, 381, 374, -1, 378, 377, -1, -1, 380, -1, -1, 387, 384, -1, 386, -1, -1, 389, -1, 391, -1, -1, -1, -1, 396, -1, 398, -1, -1], "feature": [2, 3, 4, 1, -2, 0, -2, 0, -2, -2, -2, 1, 3, 0, -2, 0, 0, 0, 0, 3, 0, 0, 0, -2, -2, 0, -2, 3, 3, 0, 3, 3, -2, 0, 3, -2, -2, -2, -2, -2, -2, 0, -2, -2, -2, -2, 3, 3, 0, -2, 0, -2, 0, -2, 4, -2, 0, -2, -2, -2, 4, 0, 0, -2, 3, -2, 3, 3, -2, -2, -2, -2, 0, 3, 3, -2, 3, 3, 0, 0, -2, -2, 0, -2, 4, -2, -2, -2, -2, -2, -2, -2, -2, -2, -2, 3, 3, -2, 3, 0, 3, 0, 3, 0, -2, 0, -2, -2, 0, -2, 0, -2, 3, 3, 0, 0, 0, 3, 0, -2, -2, 0, -2, -2, -2, 0, -2, -2, -2, -2, -2, 3, -2, 3, -2, 3, 3, -2, -2, -2, 0, 0, -2, 0, 3, -2, -2, -2, 0, 3, -2, 4, -2, -2, -2, 0, 3, -2, 0, 3, -2, 0, 0, -2, -2, -2, -2, 3, 0, -2, 3, 0, -2, -2, -2, 3, 0, 3, -2, 0, 3, 3, -2, -2, -2, -2, -2, 4, 0, 0, 0, -2, 3, -2, 3, 0, -2, -2, -2, -2, -2, 0, 0, 0, 0, -2, -2, -2, -2, -2, 1, -2, 0, 0, 0, 0, -2, -2, -2, 0, 0, -2, -2, -2, -2, 0, 0, 0, -2, 3, 3, 0, -2, 3, -2, 3, -2, 3, -2, -2, -2, -2, -2, -2, 1, 0, 3, 3, -2, 3, 3, -2, 3, 3, 0, -2, 3, 3, 0, 0, -2, -2, -2, -2, 4, 4, 3, -2, -2, -2, -2, -2, 3, -2, 3, -2, -2, -2, -2, 0, 0, 0, -2, -2, -2, 0, 4, -2, -2, 3, -2, -2, 0, 0, 0, 0, 0, -2, -2, -2, -2, 3, 4, 0, 0, 0, 3, 0, 0, -2, -2, -2, 3, -2, 3, -2, 3, -2, 4, 3, 0, 3, -2, 0, -2, 0, -2, -2, -2, -2, -2, 3, -2, -2, 0, -2, 3, 0, -2, 0, -2, 0, 3, 0, -2, -2, -2, 3, 4, -2, 3, -2, 0, -2, 0, -2, 3, 3, -2, -2, -2, -2, -2, 0, -2, 3, -2, 3, -2, 3, -2, 3, 0, -2, 3, 0, -2, -2, 0, -2, -2, 3, 0, -2, 0, -2, -2, 0, -2, 0, -2, -2, -2, -2, 3, -2, 3, -2, -2], "threshold": [0.5, 14.25, 2.5, 2.5, -2.0, 13.4375, -2.0, 20.387499809265137, -2.0, -2.0, -2.0, 1.5, 56.5, 15.370849609375, -2.0, 369.92710876464844, 134.6416473388672, 115.441650390625, 30.597900390625, 54.0, 29.850000381469727, 26.143750190734863, 25.870849609375, -2.0, -2.0, 26.46875, -2.0, 42.5, 36.0, 28.143750190734863, 33.5, 28.98543357849121, -2.0, 27.13539981842041, 31.48543357849121, -2.0, -2.0, -2.0, -2.0, -2.0, -2.0, 27.13539981842041, -2.0, -2.0, -2.0, -2.0, 27.5, 24.5, 57.23959922790527, -2.0, 70.3228988647461, -2.0, 80.73334884643555, -2.0, 0.5, -2.0, 95.5833511352539, -2.0, -2.0, -2.0, 0.5, 41.0, 35.25, -2.0, 28.98543357849121, -2.0, 50.5, 37.48543357849121, -2.0, -2.0, -2.0, -2.0, 91.75, 52.5, 29.5, -2.0, 49.5, 47.0, 59.46249961853027, 52.277099609375, -2.0, -2.0, 86.57915115356445, -2.0, 1.5, -2.0, -2.0, -2.0, -2.0, -2.0, -2.0, -2.0, -2.0, -2.0, -2.0, 32.25, 18.75, -2.0, 31.5, 7.824999809265137, 27.5, 7.785400152206421, 21.5, 7.227099895477295, -2.0, 7.439599990844727, -2.0, -2.0, 7.012500047683716, -2.0, 7.174999952316284, -2.0, 26.25, 25.5, 7.695850133895874, 7.522900104522705, 7.239599943161011, 22.25, 7.227099895477295, -2.0, -2.0, 7.227099895477295, -2.0, -2.0, -2.0, 7.6000001430511475, -2.0, -2.0, -2.0, -2.0, -2.0, 21.5, -2.0, 22.5, -2.0, 24.5, 23.5, -2.0, -2.0, -2.0, 7.741650104522705, 7.227099895477295, -2.0, 7.239599943161011, 29.23543357849121, -2.0, -2.0, -2.0, 7.762500047683716, 29.48543357849121, -2.0, 0.5, -2.0, -2.0, -2.0, 9.491650104522705, 28.5, -2.0, 7.910400152206421, 29.48543357849121, -2.0, 7.891649961471558, 7.883349895477295, -2.0, -2.0, -2.0, -2.0, 20.5, 10.335400104522705, -2.0, 19.5, 12.5, -2.0, -2.0, -2.0, 28.5, 11.0, 22.5, -2.0, 10.0, 26.5, 24.5, -2.0, -2.0, -2.0, -2.0, -2.0, 0.5, 35.99790000915527, 14.158299922943115, 11.722899913787842, -2.0, 29.5, -2.0, 30.5, 12.868750095367432, -2.0, -2.0, -2.0, -2.0, -2.0, 23.350000381469727, 21.852099418640137, 15.372900009155273, 14.872900009155273, -2.0, -2.0, -2.0, -2.0, -2.0, 2.5, -2.0, 36.17290019989014, 7.875, 7.762500047683716, 7.664599895477295, -2.0, -2.0, -2.0, 7.987500190734863, 7.910400152206421, -2.0, -2.0, -2.0, -2.0, 13.45835018157959, 13.20835018157959, 7.987500190734863, -2.0, 46.0, 44.5, 12.9375, -2.0, 35.0, -2.0, 41.5, -2.0, 43.0, -2.0, -2.0, -2.0, -2.0, -2.0, -2.0, 2.5, 26.125, 56.0, 21.5, -2.0, 44.5, 22.5, -2.0, 37.0, 30.5, 12.824999809265137, -2.0, 28.5, 27.5, 19.875, 13.25, -2.0, -2.0, -2.0, -2.0, 2.0, 0.5, 29.98543357849121, -2.0, -2.0, -2.0, -2.0, -2.0, 40.0, -2.0, 43.0, -2.0, -2.0, -2.0, -2.0, 144.16460418701172, 28.856249809265137, 28.231249809265137, -2.0, -2.0, -2.0, 158.2083511352539, 0.5, -2.0, -2.0, 61.5, -2.0, -2.0, 24.808349609375, 7.743750095367432, 7.639600038528442, 7.389600038528442, 6.849999904632568, -2.0, -2.0, -2.0, -2.0, 34.0, 2.5, 15.372900009155273, 8.589600086212158, 7.977099895477295, 21.5, 7.814599990844727, 7.762500047683716, -2.0, -2.0, -2.0, 23.5, -2.0, 25.5, -2.0, 26.5, -2.0, 0.5, 30.23543357849121, 7.910400152206421, 28.98543357849121, -2.0, 7.789599895477295, -2.0, 7.8541998863220215, -2.0, -2.0, -2.0, -2.0, -2.0, 26.48543357849121, -2.0, -2.0, 8.90625, -2.0, 29.48543357849121, 9.587500095367432, -2.0, 10.797899723052979, -2.0, 13.595849990844727, 2.5, 11.658299922943115, -2.0, -2.0, -2.0, 28.5, 0.5, -2.0, 6.0, -2.0, 14.149999618530273, -2.0, 14.427099704742432, -2.0, 14.75, 11.75, -2.0, -2.0, -2.0, -2.0, -2.0, 15.525000095367432, -2.0, 1.5, -2.0, 3.0, -2.0, 7.5, -2.0, 29.48543357849121, 15.920850276947021, -2.0, 17.5, 20.125, -2.0, -2.0, 21.550000190734863, -2.0, -2.0, 29.98543357849121, 23.350000381469727, -2.0, 23.800000190734863, -2.0, -2.0, 19.262499809265137, -2.0, 22.362500190734863, -2.0, -2.0, -2.0, -2.0, 33.98543357849121, -2.0, 38.5, -2.0, -2.0], "value": [[[0.639344262295082, 0.36065573770491804]], [[0.8207705192629816, 0.17922948073701842]], [[0.475, 0.525]], [[0.16, 0.84]], [[0.0, 1.0]], [[0.3333333333333333, 0.6666666666666666]], [[0.0, 1.0]], [[0.8, 0.2]], [[1.0, 0.0]], [[0.0, 1.0]], [[1.0, 0.0]], [[0.8456014362657092, 0.15439856373429084]], [[0.6774193548387096, 0.3225806451612903]], [[0.6396396396396397, 0.36036036036036034]], [[1.0, 0.0]], [[0.6190476190476191, 0.38095238095238093]], [[0.6310679611650486, 0.36893203883495146]], [[0.6, 0.4]], [[0.6129032258064516, 0.3870967741935484]], [[0.5, 0.5]], [[0.46875, 0.53125]], [[0.5172413793103449, 0.4827586206896552]], [[0.8, 0.2]], [[0.0, 1.0]], [[1.0, 0.0]], [[0.4583333333333333, 0.5416666666666666]], [[0.0, 1.0]], [[0.55, 0.45]], [[0.625, 0.375]], [[0.5, 0.5]], [[0.6, 0.4]], [[0.75, 0.25]], [[0.0, 1.0]], [[0.8571428571428571, 0.14285714285714285]], [[0.75, 0.25]], [[0.6666666666666666, 0.3333333333333333]], [[1.0, 0.0]], [[1.0, 0.0]], [[0.0, 1.0]], [[0.0, 1.0]], [[1.0, 0.0]], [[0.25, 0.75]], [[0.5, 0.5]], [[0.0, 1.0]], [[0.0, 1.0]], [[1.0, 0.0]], [[0.6779661016949152, 0.3220338983050847]], [[0.4166666666666667, 0.5833333333333334]], [[0.5555555555555556, 0.4444444444444444]], [[1.0, 0.0]], [[0.42857142857142855, 0.5714285714285714]], [[0.0, 1.0]], [[0.6, 0.4]], [[1.0, 0.0]], [[0.3333333333333333, 0.6666666666666666]], [[0.0, 1.0]], [[0.5, 0.5]], [[0.0, 1.0]], [[1.0, 0.0]], [[0.0, 1.0]], [[0.7446808510638298, 0.2553191489361702]], [[0.875, 0.125]], [[0.625, 0.375]], [[1.0, 0.0]], [[0.4, 0.6]], [[0.0, 1.0]], [[0.5, 0.5]], [[0.6666666666666666, 0.3333333333333333]], [[0.5, 0.5]], [[1.0, 0.0]], [[0.0, 1.0]], [[1.0, 0.0]], [[0.6086956521739131, 0.391304347826087]], [[0.55, 0.45]], [[0.6111111111111112, 0.3888888888888889]], [[1.0, 0.0]], [[0.5625, 0.4375]], [[0.5, 0.5]], [[0.6363636363636364, 0.36363636363636365]], [[0.4, 0.6]], [[1.0, 0.0]], [[0.0, 1.0]], [[0.8333333333333334, 0.16666666666666666]], [[1.0, 0.0]], [[0.5, 0.5]], [[0.0, 1.0]], [[1.0, 0.0]], [[0.0, 1.0]], [[1.0, 0.0]], [[0.0, 1.0]], [[1.0, 0.0]], [[0.0, 1.0]], [[1.0, 0.0]], [[0.0, 1.0]], [[1.0, 0.0]], [[0.8937644341801386, 0.10623556581986143]], [[0.8683385579937304, 0.13166144200626959]], [[1.0, 0.0]], [[0.8546712802768166, 0.1453287197231834]], [[0.8690909090909091, 0.13090909090909092]], [[0.7938144329896907, 0.20618556701030927]], [[0.6341463414634146, 0.36585365853658536]], [[0.71875, 0.28125]], [[0.9, 0.1]], [[1.0, 0.0]], [[0.8, 0.2]], [[0.0, 1.0]], [[1.0, 0.0]], [[0.6363636363636364, 0.36363636363636365]], [[0.0, 1.0]], [[0.7, 0.3]], [[1.0, 0.0]], [[0.6666666666666666, 0.3333333333333333]], [[0.625, 0.375]], [[0.6666666666666666, 0.3333333333333333]], [[0.5454545454545454, 0.45454545454545453]], [[0.625, 0.375]], [[0.5, 0.5]], [[0.3333333333333333, 0.6666666666666666]], [[0.0, 1.0]], [[1.0, 0.0]], [[0.6666666666666666, 0.3333333333333333]], [[1.0, 0.0]], [[0.0, 1.0]], [[1.0, 0.0]], [[0.3333333333333333, 0.6666666666666666]], [[0.0, 1.0]], [[0.5, 0.5]], [[1.0, 0.0]], [[0.0, 1.0]], [[1.0, 0.0]], [[0.3333333333333333, 0.6666666666666666]], [[0.0, 1.0]], [[0.5, 0.5]], [[1.0, 0.0]], [[0.25, 0.75]], [[0.5, 0.5]], [[0.0, 1.0]], [[1.0, 0.0]], [[0.0, 1.0]], [[0.9107142857142857, 0.08928571428571429]], [[0.9705882352941176, 0.029411764705882353]], [[1.0, 0.0]], [[0.9523809523809523, 0.047619047619047616]], [[0.8888888888888888, 0.1111111111111111]], [[1.0, 0.0]], [[0.875, 0.125]], [[1.0, 0.0]], [[0.8181818181818182, 0.18181818181818182]], [[0.7647058823529411, 0.23529411764705882]], [[0.0, 1.0]], [[0.8125, 0.1875]], [[0.7857142857142857, 0.21428571428571427]], [[1.0, 0.0]], [[1.0, 0.0]], [[0.9101123595505618, 0.0898876404494382]], [[0.9753086419753086, 0.024691358024691357]], [[1.0, 0.0]], [[0.9459459459459459, 0.05405405405405406]], [[0.8888888888888888, 0.1111111111111111]], [[0.0, 1.0]], [[0.9411764705882353, 0.058823529411764705]], [[0.75, 0.25]], [[1.0, 0.0]], [[0.0, 1.0]], [[1.0, 0.0]], [[1.0, 0.0]], [[0.8556701030927835, 0.14432989690721648]], [[0.6666666666666666, 0.3333333333333333]], [[1.0, 0.0]], [[0.5, 0.5]], [[0.75, 0.25]], [[0.5, 0.5]], [[1.0, 0.0]], [[0.0, 1.0]], [[0.875, 0.125]], [[0.9523809523809523, 0.047619047619047616]], [[0.8333333333333334, 0.16666666666666666]], [[0.0, 1.0]], [[0.9090909090909091, 0.09090909090909091]], [[0.75, 0.25]], [[0.5, 0.5]], [[1.0, 0.0]], [[0.0, 1.0]], [[1.0, 0.0]], [[1.0, 0.0]], [[1.0, 0.0]], [[0.8043478260869565, 0.1956521739130435]], [[0.6470588235294118, 0.35294117647058826]], [[0.7857142857142857, 0.21428571428571427]], [[0.625, 0.375]], [[1.0, 0.0]], [[0.5, 0.5]], [[0.0, 1.0]], [[0.6, 0.4]], [[0.75, 0.25]], [[0.0, 1.0]], [[1.0, 0.0]], [[0.0, 1.0]], [[1.0, 0.0]], [[0.0, 1.0]], [[0.896551724137931, 0.10344827586206896]], [[0.8235294117647058, 0.17647058823529413]], [[0.9333333333333333, 0.06666666666666667]], [[0.75, 0.25]], [[1.0, 0.0]], [[0.0, 1.0]], [[1.0, 0.0]], [[0.0, 1.0]], [[1.0, 0.0]], [[0.5714285714285714, 0.42857142857142855]], [[1.0, 0.0]], [[0.45454545454545453, 0.5454545454545454]], [[0.5555555555555556, 0.4444444444444444]], [[0.25, 0.75]], [[0.5, 0.5]], [[0.0, 1.0]], [[1.0, 0.0]], [[0.0, 1.0]], [[0.8, 0.2]], [[0.6666666666666666, 0.3333333333333333]], [[1.0, 0.0]], [[0.5, 0.5]], [[1.0, 0.0]], [[0.0, 1.0]], [[0.9649122807017544, 0.03508771929824561]], [[0.9487179487179487, 0.05128205128205128]], [[0.961038961038961, 0.03896103896103896]], [[1.0, 0.0]], [[0.9333333333333333, 0.06666666666666667]], [[0.9032258064516129, 0.0967741935483871]], [[0.9333333333333333, 0.06666666666666667]], [[1.0, 0.0]], [[0.8333333333333334, 0.16666666666666666]], [[0.5, 0.5]], [[0.9, 0.1]], [[1.0, 0.0]], [[0.75, 0.25]], [[0.6666666666666666, 0.3333333333333333]], [[1.0, 0.0]], [[0.0, 1.0]], [[1.0, 0.0]], [[0.0, 1.0]], [[1.0, 0.0]], [[0.29874213836477986, 0.7012578616352201]], [[0.08092485549132948, 0.9190751445086706]], [[0.17857142857142858, 0.8214285714285714]], [[0.14814814814814814, 0.8518518518518519]], [[0.0, 1.0]], [[0.18181818181818182, 0.8181818181818182]], [[0.2222222222222222, 0.7777777777777778]], [[1.0, 0.0]], [[0.2, 0.8]], [[0.15625, 0.84375]], [[0.23809523809523808, 0.7619047619047619]], [[0.0, 1.0]], [[0.29411764705882354, 0.7058823529411765]], [[0.18181818181818182, 0.8181818181818182]], [[0.25, 0.75]], [[0.14285714285714285, 0.8571428571428571]], [[0.5, 0.5]], [[0.0, 1.0]], [[1.0, 0.0]], [[0.0, 1.0]], [[0.5, 0.5]], [[0.6, 0.4]], [[0.6666666666666666, 0.3333333333333333]], [[1.0, 0.0]], [[0.5, 0.5]], [[0.5, 0.5]], [[0.0, 1.0]], [[0.0, 1.0]], [[0.6666666666666666, 0.3333333333333333]], [[1.0, 0.0]], [[0.5, 0.5]], [[0.0, 1.0]], [[1.0, 0.0]], [[0.0, 1.0]], [[1.0, 0.0]], [[0.03418803418803419, 0.9658119658119658]], [[0.011111111111111112, 0.9888888888888889]], [[0.07692307692307693, 0.9230769230769231]], [[0.0, 1.0]], [[1.0, 0.0]], [[0.0, 1.0]], [[0.1111111111111111, 0.8888888888888888]], [[0.5, 0.5]], [[0.0, 1.0]], [[1.0, 0.0]], [[0.043478260869565216, 0.9565217391304348]], [[0.0, 1.0]], [[1.0, 0.0]], [[0.5586206896551724, 0.4413793103448276]], [[0.5, 0.5]], [[0.2, 0.8]], [[0.375, 0.625]], [[0.16666666666666666, 0.8333333333333334]], [[1.0, 0.0]], [[0.0, 1.0]], [[1.0, 0.0]], [[0.0, 1.0]], [[0.5405405405405406, 0.4594594594594595]], [[0.5048543689320388, 0.49514563106796117]], [[0.49504950495049505, 0.504950495049505]], [[0.5416666666666666, 0.4583333333333333]], [[0.45, 0.55]], [[0.5151515151515151, 0.48484848484848486]], [[0.8333333333333334, 0.16666666666666666]], [[0.6666666666666666, 0.3333333333333333]], [[1.0, 0.0]], [[0.5, 0.5]], [[1.0, 0.0]], [[0.4444444444444444, 0.5555555555555556]], [[0.0, 1.0]], [[0.5, 0.5]], [[1.0, 0.0]], [[0.45454545454545453, 0.5454545454545454]], [[0.0, 1.0]], [[0.5, 0.5]], [[0.47368421052631576, 0.5263157894736842]], [[0.4444444444444444, 0.5555555555555556]], [[0.47058823529411764, 0.5294117647058824]], [[1.0, 0.0]], [[0.4, 0.6]], [[0.45454545454545453, 0.5454545454545454]], [[0.25, 0.75]], [[0.0, 1.0]], [[0.3333333333333333, 0.6666666666666666]], [[0.0, 1.0]], [[1.0, 0.0]], [[1.0, 0.0]], [[0.14285714285714285, 0.8571428571428571]], [[0.0, 1.0]], [[0.3333333333333333, 0.6666666666666666]], [[0.65625, 0.34375]], [[1.0, 0.0]], [[0.5769230769230769, 0.4230769230769231]], [[0.5, 0.5]], [[0.0, 1.0]], [[0.55, 0.45]], [[1.0, 0.0]], [[0.4375, 0.5625]], [[0.16666666666666666, 0.8333333333333334]], [[0.5, 0.5]], [[0.0, 1.0]], [[1.0, 0.0]], [[0.0, 1.0]], [[0.6, 0.4]], [[0.6666666666666666, 0.3333333333333333]], [[1.0, 0.0]], [[0.5714285714285714, 0.42857142857142855]], [[1.0, 0.0]], [[0.5, 0.5]], [[0.0, 1.0]], [[0.6, 0.4]], [[1.0, 0.0]], [[0.5, 0.5]], [[0.6666666666666666, 0.3333333333333333]], [[0.5, 0.5]], [[1.0, 0.0]], [[0.0, 1.0]], [[0.0, 1.0]], [[1.0, 0.0]], [[0.3793103448275862, 0.6206896551724138]], [[0.0, 1.0]], [[0.4230769230769231, 0.5769230769230769]], [[0.0, 1.0]], [[0.4782608695652174, 0.5217391304347826]], [[1.0, 0.0]], [[0.45454545454545453, 0.5454545454545454]], [[0.0, 1.0]], [[0.5, 0.5]], [[0.6666666666666666, 0.3333333333333333]], [[0.0, 1.0]], [[0.75, 0.25]], [[0.5, 0.5]], [[0.0, 1.0]], [[1.0, 0.0]], [[0.8333333333333334, 0.16666666666666666]], [[1.0, 0.0]], [[0.0, 1.0]], [[0.36363636363636365, 0.6363636363636364]], [[0.16666666666666666, 0.8333333333333334]], [[0.0, 1.0]], [[0.5, 0.5]], [[1.0, 0.0]], [[0.0, 1.0]], [[0.6, 0.4]], [[1.0, 0.0]], [[0.3333333333333333, 0.6666666666666666]], [[0.0, 1.0]], [[1.0, 0.0]], [[1.0, 0.0]], [[1.0, 0.0]], [[0.9473684210526315, 0.05263157894736842]], [[1.0, 0.0]], [[0.8333333333333334, 0.16666666666666666]], [[0.0, 1.0]], [[1.0, 0.0]]]}}